digraph Tree {
node [shape=box, style="filled, rounded", color="black", fontname=helvetica] ;
edge [fontname=helvetica] ;
0 [label="petal width (cm) <= 0.75\ngini = 0.63\nsamples = 96\nvalue = [37, 72, 41]\nclass = versicolor", fillcolor="#c7f8db"] ;
1 [label="gini = 0.0\nsamples = 25\nvalue = [37, 0, 0]\nclass = setosa", fillcolor="#e58139"] ;
0 -> 1 [labeldistance=2.5, labelangle=45, headlabel="True"] ;
2 [label="petal length (cm) <= 4.95\ngini = 0.46\nsamples = 71\nvalue = [0, 72, 41]\nclass = versicolor", fillcolor="#aaf4c9"] ;
0 -> 2 [labeldistance=2.5, labelangle=-45, headlabel="False"] ;
3 [label="petal width (cm) <= 1.65\ngini = 0.1\nsamples = 41\nvalue = [0, 71, 4]\nclass = versicolor", fillcolor="#44e688"] ;
2 -> 3 ;
4 [label="gini = 0.0\nsamples = 37\nvalue = [0, 71, 0]\nclass = versicolor", fillcolor="#39e581"] ;
3 -> 4 ;
5 [label="gini = 0.0\nsamples = 4\nvalue = [0, 0, 4]\nclass = virginica", fillcolor="#8139e5"] ;
3 -> 5 ;
6 [label="sepal length (cm) <= 6.05\ngini = 0.05\nsamples = 30\nvalue = [0, 1, 37]\nclass = virginica", fillcolor="#843ee6"] ;
2 -> 6 ;
7 [label="petal width (cm) <= 1.7\ngini = 0.28\nsamples = 6\nvalue = [0, 1, 5]\nclass = virginica", fillcolor="#9a61ea"] ;
6 -> 7 ;
8 [label="petal length (cm) <= 5.05\ngini = 0.5\nsamples = 2\nvalue = [0, 1, 1]\nclass = versicolor", fillcolor="#ffffff"] ;
7 -> 8 ;
9 [label="gini = 0.0\nsamples = 1\nvalue = [0, 0, 1]\nclass = virginica", fillcolor="#8139e5"] ;
8 -> 9 ;
10 [label="gini = 0.0\nsamples = 1\nvalue = [0, 1, 0]\nclass = versicolor", fillcolor="#39e581"] ;
8 -> 10 ;
11 [label="gini = 0.0\nsamples = 4\nvalue = [0, 0, 4]\nclass = virginica", fillcolor="#8139e5"] ;
7 -> 11 ;
12 [label="gini = 0.0\nsamples = 24\nvalue = [0, 0, 32]\nclass = virginica", fillcolor="#8139e5"] ;
6 -> 12 ;
}